1.193782890841038058e-01 2.826293532238539821e-03 3.475305337888066892e-02 1.163939228098202945e-02 -1.497945536900294472e-01 1.309025797362976806e-02 1.151644864520893000e-02 1.181119942612672696e-01 -2.265566498470338030e-02 -1.622513592394049242e-01 -1.780037603273728619e-01 -1.155197166872150849e-01 2.019888278735866016e-01 4.349065840534981769e-02 6.069372600255234368e-02 -3.663723098482781632e-02 -5.982013661897825352e-02 7.360477647543866436e-03 -9.243772653990663113e-02 -1.791397700055004649e-01 -1.753835249451647926e-01 -1.248503103888760207e-01 -2.737822022066981401e-02 8.104462115444620307e-02 -2.791767617268907375e-02 -1.641229870606681629e-01 -1.094779197676629123e-01 9.858075215544634395e-02 -1.076510936933648549e-01 1.465073820531134496e-01 -7.625493967478848278e-02 5.537750210299927783e-02 6.377367166890639261e-02 1.200042490427757624e-01 -8.417098071851591978e-02 -7.677924586037823684e-02 -8.810684142118102580e-02 9.972520065762066621e-02 1.010494236601676976e-01 2.633046466251560969e-02 -2.299963847867708688e-02 1.577101104608710173e-03 4.891893643236363415e-02 5.394529607326814524e-02 9.843052494056717117e-03 7.853240179030072932e-02 -1.825324951742976140e-02 4.679917121464542695e-02 3.601591642316485237e-02 2.468358606694168525e-02 -1.131230757212646348e-01 -2.959772723635403432e-02 7.792801989298651921e-03 2.467645822273678916e-02 -1.992447388124113927e-01 -1.602093604336737170e-02 -8.861491951527339372e-02 -1.783302700007365349e-01 1.623840489610259286e-01 -7.756582453314905812e-02 -2.383521137352829621e-04 -4.004472891880108548e-02 -1.566920865046749212e-01 4.928324519950369464e-02 1.136517394667457687e-01 -5.856722367145570513e-02 1.378094170751229253e-01 -3.417392785077811440e-02 2.167251349292273477e-02 -1.745111709401073186e-02 6.280024337074115517e-03 -1.227392536981250504e-01 -2.526316535445761319e-02 -1.533090505490745104e-01 -1.267515511472666334e-01 -1.711903891756907589e-02 6.599159279518351795e-02 -1.643311077314054125e-01 1.727312170259563684e-01 6.848440969572462678e-02 1.091867211024013101e-01 7.562203362707500820e-02 1.629970299913715767e-02 1.340707900495710370e-01 2.883015061448642238e-02 2.285487329796791200e-02 2.081718241634433475e-01 6.072046096874577498e-02 -1.856555452350336366e-01 -2.732419683148223574e-02 -1.691424571515989517e-01 5.344589275133441314e-02 -5.318063875272688312e-02 -6.584578573790975109e-02 4.331247942989281674e-02 3.695253907403141247e-03 -1.093688425706729472e-01 1.031216858521992324e-01 9.026733220141855418e-02 8.103708687391412979e-02 1.005062741830922424e-01 -5.443794137185480747e-02 2.451100245112873000e-01 8.830813029141805146e-03 -8.891375724186850737e-02 -5.964813274583122965e-02 1.896980282952480390e-01 -1.322453550736406858e-01 2.994203416733195663e-02 1.521907604327999985e-01 -9.979971502676662776e-02 -9.099845843196487094e-02 2.999878674394739278e-02 -1.119663847829579090e-01 7.755319830534544712e-02 3.901174254835368393e-02 -3.689248460178052441e-02 9.969706938746084046e-02 4.480189380016379869e-02 -5.153609107100795561e-02 1.211911157177672504e-01 -1.214885688628007110e-01 -3.224167266933627984e-02 1.450380743897078939e-01 1.586527314861299609e-02 1.316871834373842080e-02 -1.786956089443555301e-02 -1.907488494738364126e-01 -2.923782864316376226e-02 -9.560841975400975745e-02 -1.547515639836907590e-02 1.927563197443797269e-02 -3.928906416117004113e-02 9.515124865121062157e-05 4.336142087149651506e-03 -5.664200622766455253e-04 7.916846505860380967e-02 4.336615822134652631e-02 5.209906768272380001e-02 3.647602013825875650e-02 -7.400025090710142528e-02 5.439153292102504728e-02 -1.244679887855423134e-01 -1.000930225178697369e-01 -4.591574150056331599e-02 -2.535537498139874349e-02 3.335347069655563573e-02 9.482293665885715983e-02 -8.374635063508007946e-03 9.221405972654600491e-02 1.112583572095588447e-01 3.701153526740416644e-02 1.196102694634619025e-02 -5.193109698410739578e-02 9.779266674024272854e-02 6.748361524389771826e-02 1.026588733699970446e-01 4.085873081503332838e-02 -1.379005791423789122e-03 -6.139168102557144430e-02 1.367098645906543730e-01 9.755680470539551674e-02 8.407118809953816052e-02 -8.204412496807733657e-02 4.718244940940527488e-02 2.887005050234758285e-01 -4.321298509884120148e-02 -6.205827438289177045e-02 -9.213554938243781467e-02 1.455545677246191105e-01 1.831392539558432484e-04 7.995603349741592369e-02 8.705490167717055972e-02 -7.856017242856740135e-02 1.608022317646429777e-01 2.047554942379144205e-02 -2.755445834447779047e-02 -5.780782459415401142e-02 -1.138587716197230065e-01 9.101316893693220389e-02 1.404645926500285025e-01 -1.232061118718633663e-01 3.035325580680265506e-02 -3.225472642984676397e-01 -3.755673073790895961e-02 7.994669913935194272e-02 9.187520355561211438e-02 9.275008565554103065e-03 1.358185923206863335e-02 -1.616477382777567126e-02 -1.529101696295095403e-01 -1.304842925263832165e-01 7.231920010418163569e-02 -3.261200923489598891e-02 6.851289108296304315e-05 -9.407881212333772669e-02 5.794537243905925616e-03 -1.560071967449117025e-01 1.037586484817261123e-01 -6.368646426714739961e-02 -2.636035523831489584e-03 1.498421313996568527e-01 -4.164923488842432048e-02 -2.287821530528278968e-01 5.899981951546948850e-02 -1.663799005954815502e-01 7.332100681780794049e-02 5.832352735041967245e-03 2.224126600889858238e-02 4.781902102444824526e-02 -4.140272052539729214e-02
-5.782437929402165638e-02 -1.168370415997439377e-01 6.957389725356348531e-02 -4.094458324118344095e-02 1.774171896017354977e-01 1.923793598859689299e-02 1.136677503805628570e-01 8.048548040634319681e-03 8.165206169424052418e-02 1.130405520004766767e-01 2.876140179786263601e-02 2.207228426385774434e-01 -1.101402452478228433e-02 -4.585182124188569297e-02 1.264284598667603579e-02 2.366269400978281146e-02 -2.420597920921062074e-01 -7.917597486235583223e-03 -6.793648014845167504e-02 -3.327096488781742384e-02 3.758524366589591909e-02 1.165135677115053670e-01 2.264172077129247285e-01 1.031891031532663344e-01 1.035957244097349544e-01 -4.257756720337306511e-02 -1.563483516109814234e-03 6.501700405641805403e-02 -5.800564105743785670e-02 -8.163963162777108928e-02 1.221843860115634783e-01 1.320417783537044254e-01 4.216385143022826493e-02 -6.786964427657801724e-02 1.071114391394037586e-03 1.460768318233841290e-01 2.837303327073678692e-03 7.417818752389471540e-03 9.037749319905293011e-02 4.076565725568263854e-02 3.580062022921175896e-02 -1.406772476900520867e-02 -1.292104781991466889e-01 -7.237005404463181524e-02 -3.231229496535744511e-02 2.300436817386581050e-03 1.376952430557651930e-01 -3.060842853828368501e-03 -8.828229012346011650e-02 -1.319148008907199132e-01 -5.175940068470125804e-03 -1.223068933227655086e-01 3.320802740039562745e-02 -1.699401534095395377e-02 4.043879984598804794e-02 -1.366287173576482064e-02 -1.040128468161471836e-01 5.425395665274154733e-02 8.192176380461857477e-02 3.473239442778908170e-02 5.191002498851046698e-02 -6.754081368795100682e-02 6.294288828460112284e-02 -3.932307573913926962e-02 1.480414484221152099e-02 -7.915654972162894376e-02 -7.671470094070804990e-02 -5.861583733043168598e-02 -9.086589691013163828e-02 1.140635452394142546e-01 7.270331876996401210e-02 1.798352973075159900e-01 -7.998889755552558711e-02 3.202914418064499447e-02 -1.471193239789981566e-01 -5.210333978140790911e-02 -1.584323678646391842e-01 4.686358161347682627e-02 1.256193541517315604e-01 -7.065371324251751295e-02 -1.227293221478253232e-02 1.053125887864761606e-01 -2.205303671220176787e-02 -7.498058358081634289e-02 9.921585758998647045e-03 1.321053824189355463e-01 -1.111377715009935659e-02 1.477822303941061788e-01 -4.420501318547553210e-02 -6.980682393563321375e-02 6.604743084274601606e-02 -7.220257731560923709e-02 -1.444031242922339808e-01 -8.539211145505525014e-02 -3.252375716514843695e-02 5.098172933584679822e-02 7.576385947624547645e-02 -8.646723807044477683e-02 -7.884790162539694058e-02 7.969052806461378313e-02 3.508746100277492647e-02 3.535385873139401756e-03 -7.403558020772002535e-02 5.493484490666518394e-02 -1.317137115034528738e-01 2.938443794118784924e-02 -4.003993634656937556e-02 1.632029113155330060e-04 2.839217573934780386e-02 -5.137885813437850085e-03 1.140436663063581907e-01 -1.272787430480958604e-01 -1.296819550236659735e-01 2.834817850398613920e-02 2.340794453256651170e-02 9.946109065584405814e-03 4.741966932596494710e-02 -5.422331625707478087e-04 -1.039996041910847407e-01 9.859988845978320815e-02 -9.194983039610749032e-02 -1.192898784247166666e-01 1.406975204308981431e-01 -4.952257923498484815e-02 3.147265123820612576e-02 3.867544248837934823e-02 -8.508915839555461491e-02 8.085326833080204445e-02 2.099394314058536937e-01 7.519654340473182208e-02 1.355971277889329585e-01 -8.262878780348192898e-02 -1.739838134030831721e-02 -2.116071831426970598e-02 1.518852960054088985e-01 1.208454466946701743e-02 -4.129192178686937748e-02 1.184314284478136109e-01 -4.551365054324749138e-02 1.558724899064620195e-02 -7.008341312815315194e-02 -8.120321068870316183e-02 5.886857028080956511e-02 -1.711501398010880637e-01 -1.063440709124303524e-01 -1.190253502142489261e-01 -2.908005076504720492e-03 -4.492332402482140941e-02 1.172177606989288495e-01 -1.501330107921428764e-02 1.094178859720196240e-02 -4.991873088692167296e-03 3.079759458734407720e-03 5.224453255571692017e-02 1.364168284159705535e-01 -9.149713611859658369e-02 -1.473747131341403109e-02 4.717356703293396070e-02 -1.178437741014110030e-01 -4.274434131033763573e-02 1.548588905101185298e-01 -6.926230373842883099e-03 6.445515845182174519e-02 -7.718147907095402119e-03 3.409198605334275850e-02 1.224795196779357269e-02 1.004227136180007307e-01 -6.924390941612827699e-02 1.014094976965668471e-01 -4.328055794480437785e-02 -9.234786623475282896e-02 1.170328627085612250e-02 -5.835159383473481620e-02 1.344445242992131084e-01 6.967788207268645062e-02 4.326726347115649601e-02 -4.333689114389434327e-02 -2.077393183519643180e-02 -1.146419330788541607e-01 1.238098352640977506e-01 -2.464009260020735559e-01 -6.713453426609433672e-02 -8.308408046737618402e-02 -2.032960943376399543e-02 -7.802202586823603347e-02 -1.062287634358151794e-01 2.637343772222044622e-02 1.413110439987300959e-01 4.912532374737940688e-02 6.213300038470268363e-03 1.248614393285269429e-02 -5.665689712837880532e-02 -9.195004687891966677e-02 2.048920526404296102e-02 5.149543641404289579e-02 1.910006948210087041e-02 -4.815248457224986789e-02 -5.741035906815340067e-03 2.515437275541977380e-01 -1.197546097292288975e-01 -7.567434317783271192e-02 2.890995968442726122e-03 1.895989470007361510e-02 -1.909189029508563396e-01 -5.051453958243045522e-02 4.920707684345559940e-02 1.058892360158103368e-01 -2.206929924483641212e-02 2.314458488497825039e-01 -1.065510853178480571e-01 -3.405776700375946764e-02
-1.395378414915227905e-01 -5.010192787709404766e-02 -9.383859981122365246e-02 6.389584758071929771e-02 3.928271335263864433e-02 3.889970904077405534e-02 4.431400777159544280e-02 -7.215418055551812981e-02 -5.395569134503456349e-02 9.769492529583290175e-02 -1.464437410851879562e-01 -7.512536527229010663e-02 7.427926167717915917e-02 1.997866472343165934e-03 1.232566668568251950e-01 3.689293856857141229e-02 1.422298103324546037e-01 -2.162882681304396926e-02 8.397732855084891201e-02 1.103166463711007933e-01 1.115137858490146926e-02 -1.771882851001541082e-02 2.869008058004231601e-02 -1.626555665326314681e-01 -1.693163062806607722e-01 -4.806641465080725706e-02 2.963743767379225028e-02 -5.041450822095643741e-02 1.594592989333535327e-01 -1.496209505993194994e-02 1.614264419018617835e-01 -1.255029905969161363e-01 1.634475459059345215e-01 -3.870061225110826147e-02 1.637026784735031576e-02 -2.125630389161064365e-02 7.876558213961766530e-02 8.200292184197083278e-02 -1.188219209353227196e-01 -1.057359116755211687e-01 -1.413229641026784167e-01 -5.802722613287498998e-02 -2.634470412490215740e-01 4.633039565831885420e-02 1.167454394890268948e-01 -1.443008276493335795e-01 -1.596906922226951075e-02 7.622946195549126780e-02 -4.622457118581999730e-02 7.814053080592420208e-02 7.768900079577190088e-02 1.096012470951584494e-01 2.561082494192759573e-02 -2.796906991788627398e-03 -7.595956108119633621e-02 -2.198326962943221701e-03 -3.085988442528700068e-02 -1.921013910510180611e-01 2.641008380769255259e-02 -5.901467700207423811e-02 9.344007586166326595e-02 3.562508548869133818e-02 1.628961433690760685e-01 8.012249645957721100e-02 -8.854212201621569633e-02 -8.266614922750804839e-02 -9.730418501016224742e-02 -1.989045083564943972e-01 1.458954806844592333e-01 -2.032029281499922180e-01 6.287496560948138691e-03 1.174994631370937237e-01 -1.887163069123405992e-02 1.099336972164032949e-01 3.816400824093849758e-02 9.814969425564654907e-04 7.912592664770178030e-02 -4.150275205722127325e-02 -9.331484556115905715e-02 8.842116660554710794e-02 -1.567028251601344790e-02 1.029044429607081645e-01 -9.211695627978770326e-03 -8.420349561998941024e-02 -3.877312050461746706e-02 9.725584345129201225e-02 7.872450139291184423e-02 4.692306094262530675e-02 5.468250940800345461e-02 4.391023366140370254e-02 -5.391783362457137907e-03 6.051542696758447498e-02 1.457702609805157923e-01 6.259528201752923016e-02 -5.584318965066151913e-02 -1.069511582719692711e-01 2.585650571992673813e-02 5.172822238923274057e-02 -5.067062365165684451e-02 1.097226201343873275e-01 2.970826698370880870e-01 -6.592494725215468365e-02 9.915892984153298895e-02 -7.161885098202259992e-02 8.741213455957613787e-02 -1.877553885685416882e-02 1.123235672329099023e-02 -1.078025306778768455e-01 -2.710767169601964455e-02 -1.309685823796331028e-01 -8.215776807020966355e-02 8.527241165657234445e-02 8.613820575455038986e-02 -1.756273090120232805e-01 1.007257695452888485e-01 1.672372872532456034e-01 -5.583296227297023656e-02 7.510040783537094700e-02 6.043523286351024787e-02 -1.035972252787795145e-01 -6.251110782896784901e-02 -9.361287496592758661e-02 -1.704180397757663196e-02 2.120298282679805232e-02 -8.471758687888668315e-02 1.016452142882988269e-01 -1.634150680229015107e-01 -7.589561291218856198e-03 1.470694377830690791e-01 5.447732551519145899e-02 -4.178314580058826999e-02 -8.609462839998804906e-02 -4.521952020470264982e-02 1.404665806400415273e-01 6.916648951932953537e-02 -9.453956738905268387e-02 1.285798371840696508e-01 1.207101587644423928e-02 -4.487959543291658582e-02 -8.546060262476227673e-03 -6.970525225432594452e-02 3.223526076038870508e-02 -1.455045207625625392e-01 -5.396133162946123440e-02 2.475882342420591270e-02 -3.681739806823790349e-03 1.690559040042619587e-01 1.344599930012541772e-02 6.782404353703121169e-02 1.715843695698196503e-02 -7.214252224763421928e-02 -6.484031622004832185e-02 1.085251778366557868e-01 -7.555909953997419493e-02 6.593745903265803288e-02 -3.450574179119551832e-02 -4.264010559999135974e-02 3.262508620084766248e-02 1.490436591636739860e-01 1.853961671860142324e-01 1.842113502230293132e-01 1.240395272509040026e-02 6.590315414769234992e-02 -2.955258551974093706e-02 1.425268251620452446e-02 -1.917103086902990309e-03 -1.233727500575394764e-02 1.329260742499157599e-01 6.608289917763557342e-02 5.988172089087722555e-02 -8.185820472613433707e-02 1.001233124918097239e-01 -2.743725037405650435e-01 3.821038361005638789e-02 -6.345710617231639650e-02 -2.175530950533005950e-02 -9.271628894234743012e-02 9.420874707448334551e-02 8.191372511443277549e-02 -1.574741901488954099e-01 2.693116783179248519e-01 1.105735333200136561e-01 1.026124317944131364e-01 1.152975157660394157e-01 6.973504554332875249e-02 1.064909036789012942e-01 1.287962061848072215e-01 7.990342602181634002e-02 -5.405904739247241984e-03 -9.192477493207060202e-02 -9.552123748568558392e-02 -1.400290549818233310e-01 4.852223718541611580e-02 1.137990108083947738e-01 -8.530823670951408894e-03 9.903525870374411955e-02 -7.720002075869981939e-02 1.001802035006577052e-02 8.681103469218569291e-02 1.292891168174087058e-01 -1.301704550559142637e-01 1.649156306516676440e-01 9.782283228631484528e-03 -9.466414199529968321e-02 1.467290086994024745e-01 6.462291355098208345e-02 1.945683698547626961e-01 9.537443695466012172e-02 -8.455245741040996743e-02 8.020407196528600569e-02 -8.064811278661844496e-02
-9.808109434030477802e-02 4.852155936177523360e-02 5.438717129789408244e-02 -1.121019716821355233e-01 1.629684335426924147e-01 -2.893058755013304742e-02 -5.244978499735251237e-02 -3.247018908411738319e-02 1.366164773394659415e-01 1.592673334869422752e-01 -1.895702164763255620e-02 -1.332529235920260624e-01 7.023355119868466070e-03 -4.392727409386340542e-02 1.253107580285831579e-01 -6.577266665871828177e-02 -3.652651001412281911e-02 -8.067470402580964595e-02 1.040675236284644423e-01 -2.125765982192261930e-03 -4.055179728347165641e-02 2.030791857861759253e-02 1.157910961362453306e-01 1.908363432087910039e-01 -9.975543622643302799e-02 1.401138952019135957e-02 -6.379333713269425346e-03 6.986198833559929822e-02 8.717308801334576474e-02 2.022565361746005985e-01 -6.241891706727226152e-02 -1.017021439709149266e-01 -3.335044083783417213e-02 -1.147648481109163898e-01 4.528171500330557819e-02 -2.875439307418621582e-02 -6.415980710120425257e-02 2.266270954580206897e-04 -9.982199004598428516e-02 -1.206767756870874911e-02 -2.504111926367286883e-02 -4.247840178961276303e-02 -1.404878776988912337e-01 2.679150622383119074e-01 9.376932480065072739e-02 -4.645166301120788599e-02 2.964117734218378944e-02 -9.273384707367463009e-02 2.297549032226940333e-02 7.868941091598513626e-02 4.449954722259582413e-02 9.145631998072788205e-02 8.535662382058220587e-02 -2.595531335719156174e-01 -8.494771673412419843e-02 -3.156136146096766553e-03 1.356284853393200096e-01 6.760663809623977671e-02 7.777713580564907248e-02 -6.897223068629988740e-02 -1.178833225181921407e-01 7.557672800505446653e-02 -1.092266812440636781e-01 1.833601097438788130e-01 5.750789811963120945e-02 1.956351634691559371e-01 -9.786620239837628965e-02 -2.287809616435820814e-01 -3.602757806691184173e-02 1.827746552050401041e-01 -8.956741800693637789e-02 -3.248548810883176985e-02 -1.482160330641203207e-02 -4.016344545629846330e-02 1.607557874203070503e-01 -1.111894443750125472e-01 -9.417848650204777017e-02 6.860566883079483036e-02 -6.518291627694676460e-02 1.647477146822935445e-01 -2.715818433488739747e-02 9.331290535885877757e-02 -4.593147414626169711e-02 1.332834111368136898e-01 1.062382577252381916e-01 -1.716673576272984350e-02 -1.349627887023316097e-01 -2.267521303640115671e-01 -8.366145411553117806e-02 1.677919457043820263e-03 1.387699773968304184e-01 -5.214413608940167422e-02 -4.825397001371130312e-02 8.513977044972868835e-02 -2.324078650900649468e-01 -6.534002734158650405e-02 3.136896706788010192e-03 -3.999743745357698527e-02 -5.424525537541488585e-02 -1.349016610188789878e-01 -2.998329096880895245e-02 2.842251634352080045e-02 1.043270422591127677e-01 -4.622640067302784955e-02 8.354624635218795003e-02 -1.660213499672886783e-01 -7.195800410452622697e-02 3.551542168408906700e-04 3.867403063071905931e-03 1.261259251542528464e-02 -1.955753077829778253e-01 1.877710768900640592e-01 -1.262476336544780531e-01 -8.522514812055020927e-02 1.009889509777831540e-01 9.683257190798277847e-02 -3.172872768593826276e-02 -7.898045271692191727e-02 -8.440800785077198776e-02 9.621477885256134177e-02 4.819395446898953883e-02 9.149659688277546332e-02 5.863924165183503207e-02 4.286370779973208700e-02 -1.120668989592294440e-01 9.311904997720329979e-02 -6.707111065092843938e-02 1.791032289424889304e-02 2.377021324450029338e-01 6.223400401959219841e-02 -3.823940209157508652e-02 -3.955962698862550662e-03 -1.699908342154781149e-01 -6.014988093706000877e-02 1.619687442617376988e-02 4.864767483469054077e-02 -8.538939606311723995e-02 3.462626650835411851e-02 2.636353991491221290e-03 -1.385584436349882043e-01 -2.776334900482470627e-02 4.124398210329449643e-02 -3.863205130990472053e-02 7.772841725239787447e-02 9.137432124839001135e-02 2.465183467430124425e-02 8.733767407405002015e-03 4.180919387731282799e-02 -1.329784847117983226e-02 9.230802821851050513e-03 -8.217128540525663050e-02 -3.026678115476848577e-02 -5.651128248717831107e-03 1.423062978559323788e-01 5.573502931421902423e-02 8.247310497911727878e-02 2.496600462042740734e-02 6.300097568524952452e-02 2.477296011416509069e-02 -4.695581671730549023e-02 -9.816852301923340018e-02 4.652781153848759010e-02 -8.041954637010517715e-02 -9.658814139226466755e-02 -1.338397458943915708e-01 2.319728399631081420e-02 5.283690111691655839e-02 1.388681839786052308e-01 3.582237206349608155e-02 -9.041806976711588839e-02 1.200871695824599766e-01 -6.079463596407516657e-02 2.965646518943265697e-02 3.971363307370576884e-02 6.962215155352101392e-02 -1.720708027220259062e-01 -1.469536574843627041e-01 6.591867189659256221e-02 2.925385446750274412e-02 1.910115072897914656e-01 1.634057251434408997e-01 -2.820136486608799259e-02 3.243751780760466968e-02 -6.596757866455475738e-02 -9.955295139848009678e-02 7.750799961376936276e-02 1.030584499297309276e-01 8.019867218411912135e-02 2.736695469493881372e-02 -2.028733165359845325e-01 4.618444309229049333e-02 1.504165739133287716e-01 -5.601508732248475925e-02 1.451772489975986513e-01 2.898706283680699963e-02 3.525673847974186009e-02 6.191669811688058078e-02 1.172325347509453608e-01 3.018477096822622802e-02 -1.366910893368310231e-01 -1.496980996784855016e-02 -1.136388309923458267e-01 2.172792051910962530e-01 1.220677908505606313e-01 -1.824729933027098294e-01 -1.517940630747403319e-01 -5.465732746719002139e-02 -1.249514033152284917e-02 1.908186278040330808e-01 1.239056169964914550e-01 -8.043255793827804034e-02
4.791856375089567632e-02 4.651400664477353675e-02 6.461452200395733335e-03 2.425013021166764760e-01 -1.272319831593997641e-01 5.334263891159349985e-02 -4.070925188354215796e-02 1.492481417941615429e-01 -6.418198061701188561e-02 -1.584495312558699409e-01 -8.934796806271186331e-02 1.100440926034867428e-01 -7.477188370553429497e-02 -3.395253745651496263e-02 1.631973369774945004e-01 1.006879449403692665e-02 3.149380885666507729e-02 5.691771646292830694e-02 1.827105757324771693e-02 1.944013390969349109e-01 1.039947947007265928e-02 -4.754296986105699396e-02 -1.961492087772744378e-02 -5.984615166635449957e-02 3.025267568014788563e-02 1.238827752993453685e-02 -8.313269075698123678e-02 1.809330583103766210e-01 8.609183483587298791e-02 -3.088776262824542429e-01 -1.015885678523549725e-02 4.245381122358705961e-02 -1.430143430444168751e-01 -1.253236611286501767e-01 -1.041605290336859169e-01 -3.151630678979711747e-02 -1.075569982422304102e-02 1.121457939979091656e-01 2.617765414241313539e-04 -1.343279880421911210e-01 -6.569837058801077101e-02 -1.050535862835313000e-01 8.850325752159676762e-02 1.337652821587602958e-01 3.865360399488593918e-02 -5.573837784947324736e-02 3.913675289843865195e-03 5.218561995019186522e-02 -7.927388021571035379e-03 -5.803294971454593665e-02 1.588261850972659817e-01 -4.206116931739659059e-02 2.402575408802349044e-01 -8.117317602369766849e-02 1.584229922574855731e-01 4.638712218494088491e-02 1.880869199713497419e-01 -6.116738199817448735e-02 -2.881136998498987772e-02 -8.430044876428420542e-02 -3.279249024330099099e-02 -4.210245852119415266e-02 2.070906802784903619e-02 -5.720212015807575601e-02 1.719395339536451683e-01 -2.039686748398667759e-01 2.072314977575995601e-02 -9.545926178445601762e-03 -6.679192738529050877e-02 7.349915140081150940e-03 5.122338845775707000e-02 7.144045979516820688e-02 -5.024788970192439752e-02 1.546819420921422550e-01 5.476166427581295043e-02 -7.567307384610535981e-02 5.073069797904875000e-02 1.862250092864592074e-02 -1.864291060361630142e-02 -2.385259046856715373e-02 -1.079023330802617864e-01 1.200534681117125246e-01 3.976454328280881745e-02 -2.850674872193350792e-02 4.246484835393365964e-02 -2.208657805330660195e-01 1.219643679382934470e-01 -1.816231281328719860e-01 -8.786422812242689062e-02 -1.445195086405091089e-01 6.270286412246635355e-02 1.282591199388399272e-01 1.967636810848065465e-02 1.206788463132755229e-01 -3.241930779953718089e-02 1.743454786418257019e-01 -3.142337467031788845e-01 -1.997693524609276197e-02 -6.939889275249014854e-03 1.777441044474301068e-01 -2.174597445587013803e-02 -3.990755753242269943e-02 -8.418514306676393166e-02 4.003589056247794375e-02 1.874633793836676665e-01 3.883574617825552577e-02 -6.741054169454573086e-02 3.791456268409550134e-02 1.958357820749625361e-02 -5.453943571039339411e-02 -4.900979831471435899e-02 2.047862741961780086e-01 -3.059117859097694458e-02 -8.516582670998706917e-02 -8.849914100377963277e-03 2.120836139518934016e-01 -2.670719935910947484e-03 -3.254625274592273243e-01 -9.164128634216606173e-02 -9.020964219910797277e-03 2.684217087551357336e-02 5.136641071701959771e-02 -8.653323231246309866e-02 -1.694566235224114967e-02 -5.643815177108435499e-02 -9.823420835375125393e-02 1.432580651552163575e-01 -4.533055644571284959e-02 -7.881251248077460192e-02 -1.773485247054247538e-02 9.643575948005161935e-02 -4.557311400956268188e-02 -5.272851235598988856e-02 7.160823162051431490e-02 1.525198787394564486e-02 8.987887025363611171e-02 1.790649881409705005e-02 4.067242498505568848e-02 -3.834381000459341493e-02 -3.066867361262097871e-02 -4.861549658231516940e-02 -3.211283709859296537e-02 5.963379564633131125e-02 1.217491028970604100e-01 9.799770097616616882e-02 1.833219115722528880e-01 4.839445848040715981e-02 -4.818641148194833385e-02 7.925463490502543396e-02 -7.941845899841036560e-02 -1.942029687333938354e-02 1.347846309974662718e-02 -2.015608089943276282e-01 -9.636655413597967901e-02 -1.880134552733203970e-02 -1.900334386430712064e-01 1.302484081808762684e-01 7.270826508665448502e-03 1.251399708204050110e-01 2.990376158877687818e-01 -6.292932201200968079e-02 5.634336811059181133e-02 9.772655474889903326e-03 -1.592804352580716974e-03 2.215543260745436172e-01 -1.217351715718435756e-01 -1.406525402336747110e-01 2.904736665687509753e-02 8.502835004598374713e-02 2.382949456745138417e-02 1.491891751372012923e-02 2.173111069020624009e-01 -1.586732433520015792e-02 -4.554788412435518269e-02 1.316434382205107223e-01 -8.558726385238800416e-02 -9.536820460532302590e-02 -6.036063309696274720e-02 9.677255313537264092e-02 1.294295597623394689e-01 2.689642358742965270e-02 2.295789937691039562e-02 5.583738627043491332e-02 2.996722271170088048e-02 -5.654872522056386859e-03 2.199108690985303594e-01 -9.139953249248283784e-02 1.104450532721719391e-02 -6.593325870405163103e-02 6.562533124167757581e-02 -2.004883991569019752e-01 4.291200098478289982e-02 8.736852107044493221e-02 -1.069667300686003575e-01 -3.962656259803871289e-02 -7.530147013683424762e-02 -2.338914395566471238e-01 -2.157049707915165426e-01 5.141728629097844921e-02 -1.212792752447776068e-01 -1.683751864110748925e-02 7.590552009160290992e-02 -4.866107128621788985e-02 6.860833763133178387e-02 1.440443658465008492e-02 4.866964938358044057e-02 -8.058305346018160287e-02 -1.343753328122321636e-02 -1.616964124916225320e-01 1.675302336403870496e-01 -1.105423499267386422e-01
-7.984225720576271224e-02 -1.464383423813591933e-01 -8.388100351286208178e-02 -1.729009553159147894e-01 7.828201487256519764e-02 1.760693014508891638e-02 3.093593260277060011e-02 -3.622289918193172947e-02 2.367267586321260275e-02 1.409906796951818364e-01 -8.322108980504642692e-03 -1.438383204848450725e-01 2.046849559403703112e-02 -1.259165693491024196e-01 -2.830496557280557258e-03 4.035348101909048274e-02 2.527036919910112533e-02 5.400019936157081368e-02 2.273647748737516253e-02 1.398457430794696477e-01 -2.299844341286521043e-01 -6.178586342559665850e-02 9.241386285971725512e-02 6.263226720929156166e-02 1.430653535986909641e-01 -1.080995733022014210e-01 -7.491173283438073982e-02 2.610733501784904056e-03 -6.005983981552762835e-02 -9.496597767969017223e-02 -1.902745263853256596e-01 -2.667229865147801096e-02 8.817137081114474750e-02 -5.101595611282301601e-02 -5.809372088110359433e-02 4.559313080352239700e-02 6.253637760963883310e-03 3.217987220388335984e-02 4.626414375196850892e-02 -1.623700757949643192e-01 -2.991405639460180052e-03 1.026573929056847911e-01 -4.266877999689264872e-02 -8.955255461830598229e-02 5.459155731982726772e-02 -9.380215206704919581e-03 2.127187081634535903e-01 6.357199308306067664e-02 1.056210310455618084e-01 4.459601243638406515e-02 1.659130076846936086e-02 1.068417136269728396e-01 -2.308003100952768782e-01 -5.702643226919531204e-03 2.619667340628105759e-02 -1.042578731271765480e-01 -6.143283368061689537e-02 1.431636731967450282e-01 -3.038019610268790846e-02 -1.590695137166014961e-01 9.446828312816213380e-02 -2.982609511985074430e-02 2.417846558986738378e-02 8.501615483396515738e-02 -6.669304936095760139e-02 2.556903112436620384e-01 -7.865898638353319150e-02 -1.418161880682245746e-01 -1.237124513938459708e-02 1.034594179572622188e-02 1.289511211792934708e-01 -4.983530265969347145e-02 -1.911739136532317543e-02 2.384520856203127190e-02 1.839461051115868773e-01 1.443457790672236264e-02 -3.239277741058669419e-02 9.732576793131014758e-02 -1.167066170107557560e-01 8.815682542187663895e-02 6.809629094409716532e-02 -1.228765417602794285e-01 1.276461664381219052e-01 -1.164954537178124021e-02 -2.820708483968097091e-02 6.711128569600043059e-02 -7.929869635644057335e-02 -1.007616757668623048e-01 6.428261327883182108e-02 2.876370509514264429e-02 -3.836196803562939850e-02 -7.787053682565682478e-02 -5.934090883755818724e-02 5.188387575465233659e-02 6.958351303750763550e-02 1.701137372888856802e-01 -1.392084142650151790e-01 1.001463180202586678e-01 2.351296943230808678e-01 1.315766517028803262e-01 2.338025480459066455e-02 1.543482293483119938e-01 -6.069495437956316103e-02 8.529568613803552302e-02 8.358868764613508560e-04 -7.006083504619751989e-02 1.032118210682536619e-02 3.962546236706308844e-02 -1.495020544399595398e-02 -7.605848167661288795e-02 2.462241734103901014e-02 -3.401986415985407824e-02 -1.161056102145782143e-01 -3.348579517871845632e-03 1.165525122076894737e-01 3.975975942252369527e-02 1.074135949344147689e-01 -6.696312391439601663e-02 5.876137670951214059e-02 -4.063211300321447478e-02 5.321392384854796431e-02 4.171893897254017741e-02 3.506822260245089778e-02 -6.071709218717964707e-02 1.558381415710930473e-01 2.947876998879011071e-02 1.300374937449606250e-01 7.547562264264406212e-03 -5.069523158648098216e-02 1.261029397399903995e-01 3.868016665525395720e-02 -1.405508909708840515e-01 -6.592946760357295058e-03 -7.966461914695116553e-02 -1.770759071153150399e-01 -8.166432486603791840e-02 7.270872359484807645e-03 -8.935536367584168138e-02 2.959523658764275436e-02 -2.886118984754973416e-02 1.944569601532014982e-02 1.047063876419711131e-01 1.424063983798846411e-01 -2.959097631142652146e-02 -1.481203828449306481e-01 5.355735726288867599e-02 9.917680089445374270e-02 1.197171797042770880e-01 4.020958690596787913e-03 -1.777916893872632728e-02 -1.590064285268438793e-01 3.147979262634070796e-02 -1.732624119445456690e-01 2.119799816550543281e-01 7.950848601979904062e-02 5.011110148567152200e-02 3.625713790693523703e-02 2.137281357163889339e-02 -1.257809313857863598e-01 -9.878489832998979536e-02 9.146166242092451659e-02 -1.166424131785263538e-02 -2.097687026713718483e-01 9.472428078717022235e-03 -1.747431842081164644e-01 5.073323656455817204e-02 -1.803843989997955602e-02 -5.744860559157628777e-02 2.806427479866502317e-02 -2.110771650776807895e-01 -1.351040076891178443e-01 9.652801662460208654e-02 -3.020604356077065122e-01 1.014036637850383588e-01 -1.600197895802948078e-01 -7.335555534924748100e-02 1.067638632732292869e-01 -8.535483931645419797e-02 9.292150708270605075e-02 -8.018993846403411896e-02 5.779674001974537123e-03 -1.377951985789210576e-01 -1.949660391118542002e-02 1.679557567365400073e-01 -4.554674701563608125e-02 -6.988706535335545422e-02 3.747885398580323019e-02 -3.524650027188478557e-02 8.056720335908211517e-02 1.792406916953568838e-02 -9.972569238319396734e-02 1.499251454312899301e-01 2.860236042308790874e-02 -4.218365580344406174e-02 1.474999037093927268e-01 -4.690571269535379062e-02 -1.988226574256686252e-01 3.917464236142157996e-01 9.895445604386211846e-02 -9.599555230763667790e-02 -1.200488397474615693e-01 -1.087018627036298590e-01 5.614037468944228781e-02 -5.143118920645863706e-03 3.496451942312268912e-02 4.925646830672628790e-02 -6.900654121773834582e-02 -7.791198907893706616e-02 -3.725011588223597209e-02 1.368952207253816833e-01 1.246910313269586068e-01
-1.663168729775986107e-02 1.534669116754915630e-01 1.372921535485463473e-01 1.262192726536076615e-01 -3.369171355811875074e-02 -6.760607414135455517e-02 5.081895916214042297e-02 2.909232929094662801e-02 -2.241112685396098175e-02 2.090551363331227541e-01 -7.003208943133465425e-02 -2.789629099002952604e-03 -5.230224430579297895e-02 3.649652344840620399e-02 2.017294461676832906e-01 -9.628298161536741340e-02 4.545565390285738472e-02 -2.359084884612402608e-02 1.123973327197221456e-01 -1.695720975758298887e-01 -2.122487972484818630e-01 3.265214878668210724e-02 1.669634271024315886e-01 -1.896864135635135395e-01 -2.976351510414258078e-02 -9.298894226617042402e-02 3.081674985892969565e-02 1.041528104997975837e-02 3.266904282213074773e-02 -1.807716854289075359e-01 -1.124034302936878782e-01 -1.757746564966145009e-01 -1.166484223415563230e-02 1.301731596204094010e-01 -1.186431135099352829e-02 -1.280593066608107580e-02 -1.670713721817244923e-01 8.058471287044102760e-02 3.107759772454509947e-02 -3.286346811505839322e-02 3.501342177414204504e-02 -2.050445604148690149e-02 -8.829450771512972751e-02 4.564524120065462098e-02 2.302343605345217800e-02 -1.916795002514510848e-01 2.573627620347492331e-02 5.720669147088459916e-02 1.468773973606127825e-01 -1.261694698209867016e-01 1.228574726309445732e-02 3.025372395119815469e-02 3.940775560109047171e-02 -7.515067330779827415e-02 -1.272200284486151023e-01 6.137594960686542506e-02 -1.778777202914925415e-01 4.389721038507142514e-02 -1.338987932776997403e-01 -1.023688385468492223e-01 -3.738078313720064050e-02 -8.119547763268239460e-02 -4.353410930154384684e-02 1.131822855232178376e-01 1.531051195815743594e-02 -8.878492706702170723e-02 7.573665107579118094e-02 7.815693001242318694e-02 1.388219871466264167e-02 2.503823137305295765e-02 -9.314801456170428151e-02 9.190385478376139616e-02 8.782650783461040320e-03 -1.641332895929658031e-01 7.624903632369693651e-02 4.719265974425159577e-02 -1.598219418706701977e-02 -1.895535360121872182e-02 7.903240646444839590e-02 1.994948309337917555e-03 -8.272724303687628566e-02 -3.373526547261335162e-02 1.380673696897560254e-01 3.676583808548161345e-03 1.272404113985521890e-01 -5.784221160305278581e-03 -1.119501455282537611e-01 3.300707929264099644e-02 -1.482480120442339899e-01 1.386482272313510622e-01 -4.549373581155004287e-02 1.546083474434316318e-01 3.628088099653119930e-02 6.353517525886996642e-02 1.063854469695247051e-01 7.946064272318607846e-02 -3.504710657136132085e-02 1.579084230336270100e-01 -7.591256031411453518e-03 1.497348425896331825e-01 7.495878877497537396e-02 6.654952767350591492e-03 -3.766462516431097474e-02 -7.973806484835531394e-02 1.621269824299535409e-02 -6.566619862189521095e-02 -3.143020908921279749e-02 -1.074607269553440603e-01 -3.847007414048109197e-02 -1.017686391914075367e-01 4.287304637307070426e-02 8.543649243586338982e-03 1.161241583825274315e-01 1.324927288205484943e-01 2.938826894924679439e-02 -5.617209084055144186e-02 4.206877510553937161e-02 -7.492701859636040351e-02 1.516821953318494565e-01 -7.193287189819477789e-02 7.345349277526262710e-02 -9.597571631079940963e-03 -5.750934366007598442e-02 -1.171980040863911943e-01 -1.786848273672552168e-01 -1.018319561061567929e-01 8.819722812138948431e-03 1.479337033884352975e-02 -1.052427424832238778e-01 4.530621534765352093e-02 5.022825735890031063e-02 -6.229337723897399037e-02 -2.297546133322626583e-01 7.507285442461997249e-02 -5.527688560232305731e-02 -2.446051471599224730e-02 -4.791919731380580444e-02 1.395251887079346498e-01 -7.267977399221116352e-02 -3.368719022941462499e-02 -2.309914876683329121e-01 -8.528543381413854207e-02 1.507139082873278357e-01 -1.508551753661782624e-01 -1.287227973528284053e-01 5.392529514898789650e-02 -4.677748979622081693e-02 -6.302432347390342360e-02 -9.764055097922573478e-03 -6.186020749967974242e-02 -1.057206700792296394e-01 -1.425266015895895189e-01 1.105333813042571195e-01 4.217315912505652936e-02 -4.085234057058539231e-02 1.000350943616868382e-01 -4.221449092772562584e-02 -4.314481661372532306e-02 -1.662330009250724827e-01 9.645616076914794931e-03 1.352152384560466325e-01 -7.957845260765661344e-02 -1.822436002114228779e-02 9.985323743871180047e-02 8.327544272553076554e-02 5.233686757123672678e-02 -4.992793125016353750e-02 4.565465732717356728e-02 -1.298301706670261513e-01 -7.878414860195608049e-02 -2.362610858469557096e-01 -4.851071322669866723e-03 1.507391196246031795e-01 9.972325455057926002e-03 6.414236218558840019e-02 9.053242357999455314e-02 4.612266031581230968e-02 -1.472768788128836492e-02 1.832073310512734587e-01 -1.559469549833581714e-01 -7.564671708588284471e-02 5.780658810523190555e-02 -2.249501415900198309e-01 1.380302926368141281e-01 -1.736203749297527132e-01 -1.548779577688381981e-01 4.273815418480872430e-02 -1.184204234911375997e-01 -6.536779491776223416e-02 2.444207289364491720e-02 8.484128031816567939e-02 -1.240373996929971384e-02 -1.977448151854852565e-01 1.041847111971853646e-01 8.344346582957241909e-02 -5.620348623212728656e-02 -1.705007853925975536e-01 2.080098610099186951e-01 -5.829520153094278762e-02 6.164395036680737905e-02 -1.223435908152653157e-01 2.114569014808661065e-02 6.051536898307355999e-02 -6.695020882263064133e-02 -1.390360503957484284e-01 2.244355148104919262e-02 -8.372947544742962919e-03 -1.287683762576594393e-01 -1.970841111662582912e-02 -5.743582264522598818e-03 4.755813270526094289e-02
8.266515394631959723e-02 2.336262086531850357e-01 -5.322716162515126609e-02 -3.436405906487700196e-02 -2.377302344382915822e-01 -9.795972372943459461e-02 2.065015388108588645e-01 -3.543005388951686596e-02 5.644362029126336749e-02 6.808727877300384257e-02 1.769824163309800802e-01 -8.801362760200168514e-03 -9.360757867637289897e-02 -8.496317017590523935e-02 -2.986013763066605251e-02 7.313863163352855856e-02 -5.660897964594561321e-02 1.648315799807787974e-01 -2.806353458009103741e-01 -1.964785707386305924e-02 3.867647281295563677e-02 -6.159155191112526554e-04 -1.412600294127621392e-01 -1.107632074931197419e-01 -2.504617360922994918e-02 -6.593364933506801195e-02 -3.686741223888452545e-02 -1.803069373738632949e-02 5.624574034536031913e-02 -2.172771698474918953e-02 -5.856597920889833331e-02 1.230176197485772366e-01 -1.883996748829235290e-01 1.037747040933888337e-01 4.332224415193668826e-02 -1.074957495487898762e-01 -1.061106497075354343e-01 4.885482582655523154e-02 -1.028910371142023328e-01 2.645814116315743647e-02 -5.975646178497389521e-02 -1.144504470702855563e-03 -3.393452777021291333e-02 -1.772610540716749172e-01 1.222338772759049563e-01 1.551009050227641628e-01 -5.179196532862918867e-02 5.766843512247013526e-02 -2.188106879526262663e-02 1.222037761330008049e-01 -3.399108238362063411e-02 2.578717992535549397e-02 -4.184340252805043153e-02 -2.112836125309540403e-02 4.579150100515805288e-02 5.738029483843980899e-02 4.587618640689564847e-02 2.386258890785833073e-02 7.186236553694746662e-04 -9.934232321223419870e-02 6.809777101348245265e-02 1.179133464030287376e-02 -1.989597472107056675e-01 -3.068788397711860738e-02 1.126139346589534046e-01 1.571360240109158368e-01 2.666674606266779268e-02 7.611397924271412485e-02 -5.687118208555864973e-02 2.368005718431996642e-02 9.569404306967810303e-02 -2.246986336516963029e-02 -4.708927728581839556e-02 -4.213625993120492796e-02 7.076986565357490377e-02 7.656641783102934029e-02 1.195505199917767519e-01 1.999247077288491548e-01 9.465647047545912296e-02 -4.466419694011171393e-02 1.279863429356764386e-02 5.477641275827346834e-02 5.509861908652596840e-02 -1.109693998159410749e-01 1.051861224763641495e-02 -1.242963925968799538e-01 1.830750371348956879e-02 -3.861894053640070601e-02 -1.496052230090595403e-01 1.283010098109331476e-01 1.412841070855872239e-01 -2.040916954641288500e-02 8.413231257417292525e-03 6.211138165347333123e-02 8.900119718170819427e-02 4.422047100813229770e-02 -6.120401030982480090e-02 -1.769857594543134890e-02 -2.276340496067832952e-02 -5.292454648439004483e-02 5.808580979087664409e-02 -2.782383206348944260e-02 -5.892242581041640115e-02 8.742507248806504969e-03 2.114427665251653043e-01 1.283182739231722158e-01 -4.974062755704667521e-02 -1.698885250807818242e-02 1.304243908020708692e-02 -2.581106896391329245e-02 1.096371749270603629e-01 8.645500655017915315e-02 1.180980260524370495e-01 -2.209648951601993483e-01 3.633942737348299507e-02 1.880006471429229243e-04 -5.365244772931679340e-02 5.147308046949784777e-02 4.590393978342839632e-02 -5.195517789008399605e-03 -7.381082924672260903e-02 -9.292423291631989046e-02 1.660516672368791136e-01 1.374924862153951433e-01 -1.009864922143129534e-01 5.388638777864906970e-02 2.875493284448307416e-02 1.042577623540356657e-01 -2.708879881947609102e-03 -1.848882594967402593e-01 1.978660061490741806e-01 7.990296345441376402e-02 -6.005031268843850217e-02 8.243820457235861987e-02 1.402651244038654599e-01 -1.148128222593429969e-02 4.011381031498336552e-02 -9.886603316015249443e-02 -4.333048684962296018e-03 4.558267455769583754e-02 1.310324515672026957e-01 1.197687142269987515e-02 -1.515007517104806078e-01 6.758248729611134042e-02 -1.412503624591055496e-01 -8.980818011605565254e-02 -1.182650999544691134e-02 3.435749808585397084e-04 -1.911838710411788989e-01 -1.333270298627200756e-01 2.178207106470005094e-02 -1.238346484817622328e-01 -1.279314051994942802e-01 2.007484395460193589e-03 -4.340860749450381299e-03 1.436639003402635784e-01 6.620715880588151636e-02 1.522500805250704969e-01 1.276540089370183928e-01 -2.992354613103761010e-02 -5.110119488092523810e-02 9.575487192839883532e-02 7.771801220321949977e-03 -2.084201503804254674e-02 1.012222442269816898e-02 1.410460148949997938e-01 -1.656046432503814614e-02 6.576799609247291345e-02 1.070948970754364710e-01 -5.282970288744912035e-02 9.011446255528865468e-02 4.735160695781562290e-02 -4.268421192241800277e-02 3.951591661149178591e-02 -1.703897734417285093e-01 -1.605012770378727582e-01 -3.132718006056225968e-02 -7.877220597606107710e-02 7.740842307976016079e-02 2.137033810641843223e-02 -1.286406359406998823e-01 2.595337609361274625e-02 2.954399601882833418e-03 8.627704388063635321e-02 1.044108651695459938e-01 -8.837656210596056550e-02 -2.928863975141226539e-01 -1.710224346137912965e-01 -3.234080027491734871e-02 -5.053773153693560949e-02 -1.153969222766910302e-02 1.424370532053249039e-01 -7.359089787249686876e-02 1.348449530652260919e-01 3.316681991760719872e-02 -1.759206322372657283e-01 4.923628014604186642e-02 3.906155954551097237e-02 1.235324118965087092e-01 5.775686143704614195e-02 -4.368760784801793001e-02 -5.679357802331630456e-02 -1.805497198183595164e-01 6.585240138403483656e-02 -9.170667514252831692e-03 -1.798168292021767867e-01 -6.410842364938655613e-02 -6.176664029546750229e-02 -9.664400849736826116e-02 -1.733393890865645715e-01 2.684612494161294216e-01
9.147848275933201379e-02 1.654253571517033672e-01 -1.941100973423603160e-01 1.355194589087332646e-01 -4.797295420103067642e-02 -2.819881922399104790e-02 -6.213567507547395480e-02 9.958270086466616822e-02 1.218387945140330698e-02 3.005649161340846059e-02 5.170498260029862680e-02 9.584048521550835031e-03 8.365752018941066681e-02 1.037105697409907157e-01 -6.257738639570768757e-02 -1.949651889904646385e-01 -8.499214563553104951e-02 1.878868463197290450e-01 -2.106450833692859459e-01 4.468388860018099318e-02 -2.228290835403775871e-01 -1.436497886807472195e-02 -1.689660438303337286e-01 -7.097015530845005027e-02 1.822702719888179557e-01 -4.197004150228048763e-02 5.208030690316721965e-03 -1.651529991952938592e-01 -1.633869177994748054e-02 3.984618042268399385e-02 1.766089873700427137e-02 1.260465013780276700e-01 -4.031400505572899085e-02 6.063162978239496764e-03 6.099171836979743605e-02 1.620484950135419877e-01 1.724733193601493131e-01 -9.271599757991740021e-02 2.291451589458882998e-01 9.208203622723450804e-04 -1.031691968712365390e-02 6.227175771504864926e-02 2.045785745362402666e-02 -4.736211078053169377e-02 1.454582391522443729e-01 1.110340627818593301e-01 7.930809135892402661e-02 -2.226220365476098625e-02 5.198870188879980980e-02 -1.828845867356037854e-03 -1.462467613283731926e-01 -2.034693997912462027e-01 -1.665316476984853578e-01 4.242772049154911601e-02 -7.572574730700754563e-03 -1.895658839433925213e-02 -1.654941555222514404e-01 1.022725209595451989e-01 5.096685705954079326e-02 -1.274037473190111069e-01 1.130826724584481496e-01 1.388470241370870217e-01 1.104354525462083458e-01 -6.229885804976725144e-02 -1.947060546867082076e-01 6.982201307713709060e-02 -6.495580626637680044e-02 3.661646857539884586e-02 1.717429305183388877e-01 7.732736474315554664e-02 -9.850047022534146046e-02 -7.160103191807945522e-02 1.125356271167671507e-01 1.176080332437266923e-01 1.505770663888888194e-01 -1.074139643021427767e-02 -1.141888637905936754e-01 -1.114684387802676591e-02 1.626677609629703924e-01 9.010799781791463403e-02 2.556864750529581065e-01 2.886067230218757884e-01 -1.195031667915508050e-01 7.896949354738837246e-02 9.864135387357209073e-02 8.034241547224621471e-02 5.706792456208670261e-03 -8.005808133440239435e-03 4.817196967120020157e-02 3.487951836260920480e-02 1.076971098099264029e-01 -1.128333780492645488e-01 -5.942878480022675824e-02 1.165999272931145768e-02 9.943396020993885975e-02 -1.400430459721697662e-01 3.072629848885558013e-02 2.500220566558111757e-02 -1.734420314578097866e-01 -8.133684615702529985e-02 2.950934208984727636e-03 1.576869897962992345e-02 -7.404280105781418930e-02 1.433623243007283443e-01 -6.739592921892921529e-02 -7.846307026181592592e-02 3.657647952818249282e-02 1.445506741081765689e-01 -1.034956534185889621e-01 -2.355935902949587435e-01 -2.209195089747103755e-02 -9.551895820704536799e-03 3.066551222885534334e-02 2.294343002363312053e-02 -1.751852927885065234e-02 6.958741110845144406e-02 8.616791948534406609e-02 2.051777099253938863e-02 -6.303883381776108352e-02 8.576577810313198644e-03 -1.157175050326584853e-01 -2.768388893861873923e-01 5.400478345535397046e-02 9.865323132182209076e-02 -2.938644853487423336e-03 2.074492674170406448e-01 1.125267002866855472e-02 -1.853150440577521207e-01 8.875556830281126561e-03 -5.856952288561023678e-02 7.454627864467856802e-02 -1.112051847214359235e-01 8.331597869184348415e-02 -6.323085974287000199e-02 1.242775944767266494e-01 1.940071320560783352e-01 7.537643344483517527e-02 1.193051572225394506e-02 1.226534605185689158e-01 -5.140279914179080034e-02 1.226946737449346181e-01 4.099643430673413635e-02 -9.006383197553881337e-02 -2.084476375551908844e-01 -5.823603439712483898e-02 1.418168380791929861e-01 -7.879169196306807718e-03 -4.792560635816638668e-04 -2.286684069705912682e-03 1.360092219058393614e-01 -1.353424128259851089e-01 -1.059668688843989071e-01 -1.000387001655731328e-01 3.237632902196226764e-02 -5.707404541416132709e-02 -1.834627952109483817e-01 6.783640055842679595e-02 -1.914635294340196192e-01 3.777539123284692768e-02 -1.119452476307075672e-01 1.384960288429407382e-01 5.693285638439610219e-02 3.438730989936506117e-03 -2.473393922227017788e-03 -9.440884873749826045e-02 1.432339032569405757e-01 -1.058801316406001308e-01 1.425841793072429309e-01 3.455606886011979711e-02 1.548598872935192938e-01 -8.390941185050751483e-02 -1.483643479430136747e-01 1.240833363880166629e-01 -1.395724489260421509e-02 2.315385437796946833e-01 -1.936195751989965019e-02 -1.302932302260844180e-02 1.075650241208671483e-02 -1.113920902872727638e-02 -3.187174171770839476e-02 -2.475514286025483346e-02 1.405306909970481868e-02 -1.346475444867077931e-01 6.405073103186950667e-02 1.484781478022737522e-01 -3.956469026495823549e-02 -8.629631864999154356e-02 1.122286230845678523e-01 -3.690782943660540077e-02 -2.804541237836010933e-02 -6.818268306806124501e-02 9.068351801147940539e-02 -3.272622647091470022e-02 -1.583134630549143385e-01 -2.274524423187115549e-02 8.015004033374817372e-02 7.078336558472049511e-02 3.089927613633411396e-02 2.550718918238037425e-02 5.586620316313626461e-02 1.163716634995950322e-01 1.759295447834616222e-01 -9.661694262802568087e-03 1.905868220708013469e-02 2.939828703840656199e-01 -5.063951271767080237e-02 7.151769049613081186e-02 -1.957119960962902527e-01 3.802117551794872291e-02 1.237353564727139699e-01 1.974320405406410350e-01
-4.129261142831881087e-02 2.685457856092111212e-02 -1.108606133903871083e-01 -4.761737153263784217e-02 -3.496376673722231126e-02 -1.346819228016187323e-02 5.890603752275708205e-02 -3.259857262217030760e-02 2.602659113564702031e-01 6.330482534080544843e-02 8.775306148470315981e-02 -1.100014085343589132e-01 2.341048167344945696e-01 2.137453939150229729e-02 3.476543367754571234e-02 -1.252706336488654260e-01 -8.442570875305992206e-02 6.237921402434275925e-02 3.595203997160267145e-02 6.435310066652465133e-02 5.342445717243772541e-02 2.120892940633449519e-02 4.882960469393454739e-02 -1.004074600493775060e-01 1.173630560042338705e-01 -6.632694953158525808e-02 -2.300070359153857935e-02 1.870428757425700306e-01 -3.134336804391221060e-02 -1.526400644669693996e-01 -3.778008439123064360e-02 -5.142487192876948887e-02 1.982921254560093827e-01 -1.835767541154143534e-01 2.740566297673665760e-02 2.533970667070344907e-01 -1.011814464446117445e-01 6.419370979240514308e-02 -2.047365283373173833e-02 9.023028048032266310e-03 2.568162433865366079e-03 -2.387192057699099590e-01 -9.765985427336682997e-03 -1.223073078540030424e-02 2.819280357834780260e-02 1.130799128516396801e-01 -1.988660600692187391e-02 -1.394301294376352751e-01 3.654229736954799773e-02 -1.912559410615661789e-03 7.713378407383721103e-02 -3.513658989462658394e-02 4.916600031947437020e-03 2.040051342015604396e-02 2.363617220702178556e-02 2.385388032947201309e-01 -1.545308616228336096e-01 1.779737226202800227e-01 -5.062434007109511275e-02 5.402769982961596468e-02 -1.510844303075413279e-02 3.692854263542947463e-02 -8.584129516180637187e-02 -1.432423962694678587e-01 -1.608974440528605429e-02 3.635651356290804659e-02 1.664255427112072139e-01 -1.872980964680795099e-02 8.866062113293537994e-02 2.244822500659807846e-02 -3.189936785690075660e-02 1.545809819810260721e-01 -1.827396025349089514e-01 -7.351750831894765525e-02 -5.293378732788463215e-02 -3.158011485742482499e-02 1.050408102617987061e-01 5.401310984016785555e-02 1.904847329216613483e-01 3.347117638668759953e-03 -6.880311523028216636e-02 -2.997683369411227247e-02 1.794351496609150089e-03 1.600697692068078215e-01 -4.468476851431792130e-02 5.465218640837127273e-02 1.756480663712804147e-01 -9.168378187170982130e-02 1.576076765919207784e-02 -5.947859128324628486e-03 3.088177436510031182e-02 2.311922329372510451e-02 1.450545580869177231e-01 5.137058783102949056e-02 -4.381558116827430349e-02 -4.462749121825534959e-02 -1.563774767975355251e-01 2.260551418584922333e-03 5.665099567132578923e-02 -2.762902451799597106e-02 -6.493202955284999543e-03 -5.107830553914469163e-02 4.084365422935901102e-02 1.847105928584125423e-01 -9.264811494875488385e-02 -4.654513107104592262e-02 1.957763399201840615e-01 4.650276940106470858e-02 8.094382577981956706e-02 -5.218648957395247839e-02 1.652556955469382249e-02 -2.058390057717568097e-02 6.737374547104439670e-02 1.569779017838500088e-03 -1.788931409226599770e-03 1.729558294163245288e-02 -2.633139299723759319e-02 2.712445299162082879e-01 8.364145239858372660e-02 1.434147825015334721e-01 2.331367308338306854e-01 -2.795108600619102121e-04 -1.185185147881484824e-01 6.338095124094689226e-02 -5.595221787969365673e-02 -5.119634466514205728e-02 -7.944610774290181143e-02 1.016699882528067644e-01 -3.860301715144279222e-02 2.480174104173966249e-02 -6.837550482135955343e-02 -3.137917949039335103e-02 -9.881210792634589901e-02 -9.141099872774030577e-02 -2.444266789341407661e-02 -8.299335083717546135e-02 -1.366484862571820669e-01 -1.879885365867370040e-01 -1.119195180560857567e-01 -9.531877339165215068e-02 -1.245852746340738587e-02 -1.425867401352254316e-01 -1.113130130995057358e-02 -1.131048914613148881e-01 -1.461247261928646374e-02 4.767102957616633357e-02 1.115744648934077765e-02 2.686257513303379543e-02 4.402123244109697707e-03 8.704812731802724635e-02 -7.118282418954192947e-02 1.050082109401392905e-01 1.004146950594121263e-01 3.251407945643985248e-02 6.289057785734156365e-03 -1.403058438913308004e-01 -3.580200617584623074e-02 -1.399869250326178649e-01 -1.265503750747206703e-02 1.967406448092566540e-02 4.539843609593036643e-03 6.428022370989447398e-02 9.199452077511874326e-02 2.384575220616207136e-01 3.439823001003330244e-02 7.768995354763157113e-02 9.301858426351172771e-02 -6.813166701346895504e-02 -1.896928060199729385e-02 1.938820762221106220e-01 4.408043111253055757e-02 -1.380430263265429447e-01 -6.390619105213524165e-02 3.932009845632787604e-02 9.257102881204043454e-02 1.266688948705630147e-01 2.727192935902670451e-02 1.627556296694805393e-01 -6.718937626361896898e-02 7.978021731391039817e-02 1.224975275851304390e-01 1.495639420758212434e-01 -1.731433519759596473e-01 -7.443629513356175842e-02 1.526890354652633286e-01 1.755622030518995680e-01 4.781679063178997241e-02 2.174147429744335142e-02 8.081497316541851050e-02 1.851880301574749810e-01 1.342897402019164500e-02 1.923439916610590328e-01 2.091742990742841233e-03 5.758297410304729497e-02 5.798157426004940662e-02 -1.404285008171161746e-02 -1.075637324423033741e-03 3.879668054585623527e-02 1.680061460291260717e-02 -3.609177322839484531e-02 -8.120692450935744142e-03 -8.593392931626905873e-02 -3.415120198557514142e-02 -3.152415887298325951e-03 6.261547438650888475e-02 7.191422942620492864e-02 -1.393576326016161132e-02 2.622250517005770415e-02 5.246470802710832132e-02 -1.145309340612755689e-01 4.206217049491876858e-02
